digraph {
	0 [label="total_votes <= 1079.5\nmse = 0.48\nsamples = 733\nvalue = 6.407" fillcolor=green style=filled]
	1 [label="duration <= 63.5\nmse = 0.374\nsamples = 587\nvalue = 6.23" fillcolor="#f0b88f" style=filled]
	2 [label="total_votes <= 116.5\nmse = 0.553\nsamples = 105\nvalue = 5.842" fillcolor="#f3c3a0" style=filled]
	3 [label="year <= 1928.0\nmse = 0.858\nsamples = 18\nvalue = 5.47" fillcolor="#f5cdb0" style=filled]
	4 [label="duration <= 61.0\nmse = 0.145\nsamples = 9\nvalue = 6.09" fillcolor="#f1bc95" style=filled]
	5 [label="mse = 0.059\nsamples = 8\nvalue = 5.989" fillcolor="#f2be9a" style=filled]
	6 [label="mse = -0.0\nsamples = 1\nvalue = 7.0" fillcolor="#eca26d" style=filled]
	7 [label="Comedy <= 0.5\nmse = 0.882\nsamples = 9\nvalue = 4.992" fillcolor="#f7dac5" style=filled]
	8 [label="mse = 0.373\nsamples = 6\nvalue = 5.39" fillcolor="#f5cfb4" style=filled]
	9 [label="mse = 0.296\nsamples = 3\nvalue = 3.667" fillcolor="#ffffff" style=filled]
	10 [label="Drama <= 0.5\nmse = 0.459\nsamples = 87\nvalue = 5.917" fillcolor="#f2c09d" style=filled]
	11 [label="total_votes <= 165.5\nmse = 0.374\nsamples = 42\nvalue = 5.742" fillcolor="#f3c5a4" style=filled]
	12 [label="mse = 0.163\nsamples = 11\nvalue = 6.123" fillcolor="#f1bb94" style=filled]
	13 [label="mse = 0.379\nsamples = 31\nvalue = 5.618" fillcolor="#f4c9aa" style=filled]
	14 [label="total_votes <= 745.5\nmse = 0.484\nsamples = 45\nvalue = 6.066" fillcolor="#f1bc96" style=filled]
	15 [label="mse = 0.491\nsamples = 41\nvalue = 5.983" fillcolor="#f2bf9a" style=filled]
	16 [label="mse = 0.077\nsamples = 4\nvalue = 6.625" fillcolor="#eead7e" style=filled]
	17 [label="total_votes <= 262.0\nmse = 0.298\nsamples = 482\nvalue = 6.312" fillcolor="#f0b58b" style=filled]
	18 [label="duration <= 80.5\nmse = 0.279\nsamples = 218\nvalue = 6.18" fillcolor="#f1b991" style=filled]
	19 [label="Thriller <= 0.5\nmse = 0.249\nsamples = 129\nvalue = 6.051" fillcolor="#f1bd97" style=filled]
	20 [label="mse = 0.245\nsamples = 127\nvalue = 6.068" fillcolor="#f1bc96" style=filled]
	21 [label="mse = 0.014\nsamples = 2\nvalue = 5.46" fillcolor="#f5cdb1" style=filled]
	22 [label="duration <= 117.5\nmse = 0.269\nsamples = 89\nvalue = 6.35" fillcolor="#f0b48a" style=filled]
	23 [label="mse = 0.269\nsamples = 80\nvalue = 6.303" fillcolor="#f0b68c" style=filled]
	24 [label="mse = 0.047\nsamples = 9\nvalue = 6.8" fillcolor="#eda876" style=filled]
	25 [label="duration <= 275.0\nmse = 0.286\nsamples = 264\nvalue = 6.423" fillcolor="#efb287" style=filled]
	26 [label="duration <= 146.5\nmse = 0.279\nsamples = 263\nvalue = 6.412" fillcolor="#efb387" style=filled]
	27 [label="mse = 0.267\nsamples = 258\nvalue = 6.427" fillcolor="#efb286" style=filled]
	28 [label="mse = 0.291\nsamples = 5\nvalue = 5.657" fillcolor="#f4c8a8" style=filled]
	29 [label="mse = 0.0\nsamples = 1\nvalue = 7.4" fillcolor="#ea975c" style=filled]
	30 [label="total_votes <= 3278.5\nmse = 0.305\nsamples = 146\nvalue = 7.088" fillcolor=green style=filled]
	31 [label="Thriller <= 0.5\nmse = 0.256\nsamples = 92\nvalue = 6.896" fillcolor=green style=filled]
	32 [label="duration <= 119.0\nmse = 0.228\nsamples = 91\nvalue = 6.924" fillcolor=green style=filled]
	33 [label="total_votes <= 1397.5\nmse = 0.214\nsamples = 84\nvalue = 6.874" fillcolor=green style=filled]
	34 [label="mse = 0.169\nsamples = 29\nvalue = 6.682" fillcolor="#eeab7b" style=filled]
	35 [label="mse = 0.208\nsamples = 55\nvalue = 6.972" fillcolor=green style=filled]
	36 [label="year <= 1930.0\nmse = 0.103\nsamples = 7\nvalue = 7.417" fillcolor="#e9975b" style=filled]
	37 [label="mse = 0.057\nsamples = 5\nvalue = 7.278" fillcolor="#ea9b61" style=filled]
	38 [label="mse = 0.009\nsamples = 2\nvalue = 7.833" fillcolor="#e78b49" style=filled]
	39 [label="mse = -0.0\nsamples = 1\nvalue = 5.7" fillcolor="#f3c6a6" style=filled]
	40 [label="total_votes <= 25071.0\nmse = 0.203\nsamples = 54\nvalue = 7.438" fillcolor="#e9965a" style=filled]
	41 [label="year <= 1928.5\nmse = 0.175\nsamples = 47\nvalue = 7.356" fillcolor="#ea985e" style=filled]
	42 [label="year <= 1923.5\nmse = 0.212\nsamples = 19\nvalue = 7.538" fillcolor="#e99356" style=filled]
	43 [label="mse = 0.105\nsamples = 5\nvalue = 7.043" fillcolor="#eca16c" style=filled]
	44 [label="mse = 0.127\nsamples = 14\nvalue = 7.721" fillcolor="#e88e4e" style=filled]
	45 [label="duration <= 68.0\nmse = 0.111\nsamples = 28\nvalue = 7.232" fillcolor="#eb9c63" style=filled]
	46 [label="mse = 0.198\nsamples = 5\nvalue = 6.85" fillcolor="#eda774" style=filled]
	47 [label="mse = 0.039\nsamples = 23\nvalue = 7.333" fillcolor="#ea995f" style=filled]
	48 [label="year <= 1930.5\nmse = 0.015\nsamples = 7\nvalue = 8.022" fillcolor="#e68641" style=filled]
	49 [label="Adventure <= 0.5\nmse = 0.003\nsamples = 4\nvalue = 8.1" fillcolor="#e6843d" style=filled]
	50 [label="mse = 0.002\nsamples = 3\nvalue = 8.08" fillcolor="#e6843e" style=filled]
	51 [label="mse = -0.0\nsamples = 1\nvalue = 8.2" fillcolor="#e58139" style=filled]
	52 [label="year <= 1931.5\nmse = 0.002\nsamples = 3\nvalue = 7.867" fillcolor="#e78a48" style=filled]
	53 [label="mse = 0.0\nsamples = 1\nvalue = 7.8" fillcolor="#e78c4a" style=filled]
	54 [label="mse = -0.0\nsamples = 2\nvalue = 7.9" fillcolor="#e78946" style=filled]
	0 -> 1
	1 -> 2
	2 -> 3
	3 -> 4
	4 -> 5
	4 -> 6
	3 -> 7
	7 -> 8
	7 -> 9
	2 -> 10
	10 -> 11
	11 -> 12
	11 -> 13
	10 -> 14
	14 -> 15
	14 -> 16
	1 -> 17
	17 -> 18
	18 -> 19
	19 -> 20
	19 -> 21
	18 -> 22
	22 -> 23
	22 -> 24
	17 -> 25
	25 -> 26
	26 -> 27
	26 -> 28
	25 -> 29
	0 -> 30
	30 -> 31
	31 -> 32
	32 -> 33
	33 -> 34
	33 -> 35
	32 -> 36
	36 -> 37
	36 -> 38
	31 -> 39
	30 -> 40
	40 -> 41
	41 -> 42
	42 -> 43
	42 -> 44
	41 -> 45
	45 -> 46
	45 -> 47
	40 -> 48
	48 -> 49
	49 -> 50
	49 -> 51
	48 -> 52
	52 -> 53
	52 -> 54
}
